<?xml version="1.0" encoding="US-ASCII"?>


<!--
	Bayesian network in XMLBIF v0.3 (BayesNet Interchange Format)
	Produced by JavaBayes (http://www.cs.cmu.edu/~javabayes/
	Number of nodes:20
	Output created Tue Oct 13 12:06:33 CEST 2020
-->



<BIF VERSION="0.3">
<NETWORK>
<NAME>InternalNetwork</NAME>
<!-- Variables -->
<VARIABLE TYPE="nature">
    <NAME>node0</NAME>
    <OUTCOME>0</OUTCOME>
    <OUTCOME>1</OUTCOME>
    <PROPERTY>position = (45, 30)</PROPERTY>
</VARIABLE>
<!-- Variables -->
<VARIABLE TYPE="nature">
    <NAME>node1</NAME>
    <OUTCOME>0</OUTCOME>
    <OUTCOME>1</OUTCOME>
    <PROPERTY>position = (15, 150)</PROPERTY>
</VARIABLE>
<!-- Variables -->
<VARIABLE TYPE="nature">
    <NAME>node2</NAME>
    <OUTCOME>0</OUTCOME>
    <OUTCOME>1</OUTCOME>
    <PROPERTY>position = (44, 270)</PROPERTY>
</VARIABLE>
<!-- Variables -->
<VARIABLE TYPE="nature">
    <NAME>node3</NAME>
    <OUTCOME>0</OUTCOME>
    <OUTCOME>1</OUTCOME>
    <PROPERTY>position = (135, 164)</PROPERTY>
</VARIABLE>
<!-- Variables -->
<VARIABLE TYPE="nature">
    <NAME>node4</NAME>
    <OUTCOME>0</OUTCOME>
    <OUTCOME>1</OUTCOME>
    <PROPERTY>position = (15, 390)</PROPERTY>
</VARIABLE>
<!-- Variables -->
<VARIABLE TYPE="nature">
    <NAME>node5</NAME>
    <OUTCOME>0</OUTCOME>
    <OUTCOME>1</OUTCOME>
    <PROPERTY>position = (135, 404)</PROPERTY>
</VARIABLE>
<!-- Variables -->
<VARIABLE TYPE="nature">
    <NAME>node6</NAME>
    <OUTCOME>0</OUTCOME>
    <OUTCOME>1</OUTCOME>
    <PROPERTY>position = (164, 284)</PROPERTY>
</VARIABLE>
<!-- Variables -->
<VARIABLE TYPE="nature">
    <NAME>node7</NAME>
    <OUTCOME>0</OUTCOME>
    <OUTCOME>1</OUTCOME>
    <PROPERTY>position = (165, 44)</PROPERTY>
</VARIABLE>
<!-- Variables -->
<VARIABLE TYPE="nature">
    <NAME>node8</NAME>
    <OUTCOME>0</OUTCOME>
    <OUTCOME>1</OUTCOME>
    <PROPERTY>position = (255, 150)</PROPERTY>
</VARIABLE>
<!-- Variables -->
<VARIABLE TYPE="nature">
    <NAME>node9</NAME>
    <OUTCOME>0</OUTCOME>
    <OUTCOME>1</OUTCOME>
    <PROPERTY>position = (285, 30)</PROPERTY>
</VARIABLE>
<!-- Variables -->
<VARIABLE TYPE="nature">
    <NAME>node10</NAME>
    <OUTCOME>0</OUTCOME>
    <OUTCOME>1</OUTCOME>
    <PROPERTY>position = (375, 135)</PROPERTY>
</VARIABLE>
<!-- Variables -->
<VARIABLE TYPE="nature">
    <NAME>node11</NAME>
    <OUTCOME>0</OUTCOME>
    <OUTCOME>1</OUTCOME>
    <PROPERTY>position = (284, 270)</PROPERTY>
</VARIABLE>
<!-- Variables -->
<VARIABLE TYPE="nature">
    <NAME>node12</NAME>
    <OUTCOME>0</OUTCOME>
    <OUTCOME>1</OUTCOME>
    <PROPERTY>position = (495, 149)</PROPERTY>
</VARIABLE>
<!-- Variables -->
<VARIABLE TYPE="nature">
    <NAME>node13</NAME>
    <OUTCOME>0</OUTCOME>
    <OUTCOME>1</OUTCOME>
    <PROPERTY>position = (405, 15)</PROPERTY>
</VARIABLE>
<!-- Variables -->
<VARIABLE TYPE="nature">
    <NAME>node14</NAME>
    <OUTCOME>0</OUTCOME>
    <OUTCOME>1</OUTCOME>
    <PROPERTY>position = (404, 255)</PROPERTY>
</VARIABLE>
<!-- Variables -->
<VARIABLE TYPE="nature">
    <NAME>node15</NAME>
    <OUTCOME>0</OUTCOME>
    <OUTCOME>1</OUTCOME>
    <PROPERTY>position = (524, 269)</PROPERTY>
</VARIABLE>
<!-- Variables -->
<VARIABLE TYPE="nature">
    <NAME>node16</NAME>
    <OUTCOME>0</OUTCOME>
    <OUTCOME>1</OUTCOME>
    <PROPERTY>position = (525, 29)</PROPERTY>
</VARIABLE>
<!-- Variables -->
<VARIABLE TYPE="nature">
    <NAME>node17</NAME>
    <OUTCOME>0</OUTCOME>
    <OUTCOME>1</OUTCOME>
    <PROPERTY>position = (644, 284)</PROPERTY>
</VARIABLE>
<!-- Variables -->
<VARIABLE TYPE="nature">
    <NAME>node18</NAME>
    <OUTCOME>0</OUTCOME>
    <OUTCOME>1</OUTCOME>
    <PROPERTY>position = (764, 270)</PROPERTY>
</VARIABLE>
<!-- Variables -->
<VARIABLE TYPE="nature">
    <NAME>node19</NAME>
    <OUTCOME>0</OUTCOME>
    <OUTCOME>1</OUTCOME>
    <PROPERTY>position = (884, 255)</PROPERTY>
</VARIABLE>
<!-- Probability Distributions -->
 <DEFINITION>
      <FOR>node0</FOR>
     <TABLE>0.3683 0.6317 </TABLE>
 </DEFINITION>
 <DEFINITION>
      <FOR>node1</FOR>
      <GIVEN>node6</GIVEN>
     <TABLE>0.355 0.645 0.6736 0.3264 </TABLE>
 </DEFINITION>
 <DEFINITION>
      <FOR>node2</FOR>
      <GIVEN>node3</GIVEN>
      <GIVEN>node15</GIVEN>
     <TABLE>0.5366 0.4634 0.5257 0.4743 0.9481 0.0519 0.1277 0.8723 </TABLE>
 </DEFINITION>
 <DEFINITION>
      <FOR>node3</FOR>
      <GIVEN>node17</GIVEN>
     <TABLE>0.6592 0.3408 0.7234 0.2766 </TABLE>
 </DEFINITION>
 <DEFINITION>
      <FOR>node4</FOR>
      <GIVEN>node7</GIVEN>
      <GIVEN>node13</GIVEN>
      <GIVEN>node12</GIVEN>
     <TABLE>0.2641 0.7359 0.0715 0.9285 0.1171 0.8829 0.5735 0.4265 0.7987 0.2013 0.7652 0.2348 0.5749 0.4251 0.989 0.011 </TABLE>
 </DEFINITION>
 <DEFINITION>
      <FOR>node5</FOR>
      <GIVEN>node18</GIVEN>
      <GIVEN>node13</GIVEN>
      <GIVEN>node1</GIVEN>
     <TABLE>0.94 0.06 0.7965 0.2035 0.3604 0.6396 0.2579 0.7421 0.9418 0.0582 0.91 0.09 0.7523 0.2477 0.1378 0.8622 </TABLE>
 </DEFINITION>
 <DEFINITION>
      <FOR>node6</FOR>
      <GIVEN>node8</GIVEN>
      <GIVEN>node19</GIVEN>
     <TABLE>0.7342 0.2658 0.5778 0.4222 0.1563 0.8437 0.0557 0.9443 </TABLE>
 </DEFINITION>
 <DEFINITION>
      <FOR>node7</FOR>
     <TABLE>0.1035 0.8965 </TABLE>
 </DEFINITION>
 <DEFINITION>
      <FOR>node8</FOR>
      <GIVEN>node10</GIVEN>
     <TABLE>0.6521 0.3479 0.8025 0.1975 </TABLE>
 </DEFINITION>
 <DEFINITION>
      <FOR>node9</FOR>
     <TABLE>0.774 0.226 </TABLE>
 </DEFINITION>
 <DEFINITION>
      <FOR>node10</FOR>
      <GIVEN>node0</GIVEN>
     <TABLE>0.8481 0.1519 0.8879 0.1121 </TABLE>
 </DEFINITION>
 <DEFINITION>
      <FOR>node11</FOR>
      <GIVEN>node8</GIVEN>
      <GIVEN>node2</GIVEN>
     <TABLE>0.7292 0.2708 0.081 0.919 0.7869 0.2131 0.2338 0.7662 </TABLE>
 </DEFINITION>
 <DEFINITION>
      <FOR>node12</FOR>
      <GIVEN>node11</GIVEN>
     <TABLE>0.194 0.806 0.7569 0.2431 </TABLE>
 </DEFINITION>
 <DEFINITION>
      <FOR>node13</FOR>
     <TABLE>0.8745 0.1255 </TABLE>
 </DEFINITION>
 <DEFINITION>
      <FOR>node14</FOR>
      <GIVEN>node10</GIVEN>
      <GIVEN>node9</GIVEN>
     <TABLE>0.4455 0.5545 0.3885 0.6115 0.683 0.317 0.1265 0.8735 </TABLE>
 </DEFINITION>
 <DEFINITION>
      <FOR>node15</FOR>
      <GIVEN>node0</GIVEN>
      <GIVEN>node9</GIVEN>
     <TABLE>0.7464 0.2536 0.5172 0.4828 0.7714 0.2286 0.5159 0.4841 </TABLE>
 </DEFINITION>
 <DEFINITION>
      <FOR>node16</FOR>
     <TABLE>0.5548 0.4452 </TABLE>
 </DEFINITION>
 <DEFINITION>
      <FOR>node17</FOR>
      <GIVEN>node7</GIVEN>
      <GIVEN>node16</GIVEN>
     <TABLE>0.3233 0.6767 0.6837 0.3163 0.4834 0.5166 0.7792 0.2208 </TABLE>
 </DEFINITION>
 <DEFINITION>
      <FOR>node18</FOR>
      <GIVEN>node3</GIVEN>
      <GIVEN>node12</GIVEN>
     <TABLE>0.0563 0.9437 0.0562 0.9438 0.4213 0.5787 0.7336 0.2664 </TABLE>
 </DEFINITION>
 <DEFINITION>
      <FOR>node19</FOR>
      <GIVEN>node14</GIVEN>
      <GIVEN>node16</GIVEN>
     <TABLE>0.4656 0.5344 0.3008 0.6992 0.1284 0.8716 0.3707 0.6293 </TABLE>
 </DEFINITION>
</NETWORK>
</BIF>
