<?xml version="1.0" encoding="US-ASCII"?>

<!--
  Bayesian network in XMLBIF v0.3 (BayesNet Interchange Format)
  Produced by SamIam http://reasoning.cs.ucla.edu/samiam
  Output created 27-set-2020 18.17.28
-->

<BIF VERSION="0.3">
<NETWORK>
  <NAME>bayesiannetwork</NAME>

  <VARIABLE TYPE="nature">
    <NAME>PKA</NAME>
    <OUTCOME>LOW</OUTCOME>
    <OUTCOME>AVG</OUTCOME>
    <OUTCOME>HIGH</OUTCOME>
    <PROPERTY>position = (366, -213)</PROPERTY>
  </VARIABLE>

  <VARIABLE TYPE="nature">
    <NAME>Mek</NAME>
    <OUTCOME>LOW</OUTCOME>
    <OUTCOME>AVG</OUTCOME>
    <OUTCOME>HIGH</OUTCOME>
    <PROPERTY>position = (82, -322)</PROPERTY>
  </VARIABLE>

  <VARIABLE TYPE="nature">
    <NAME>Erk</NAME>
    <OUTCOME>LOW</OUTCOME>
    <OUTCOME>AVG</OUTCOME>
    <OUTCOME>HIGH</OUTCOME>
    <PROPERTY>position = (836, -139)</PROPERTY>
  </VARIABLE>

  <VARIABLE TYPE="nature">
    <NAME>Akt</NAME>
    <OUTCOME>LOW</OUTCOME>
    <OUTCOME>AVG</OUTCOME>
    <OUTCOME>HIGH</OUTCOME>
    <PROPERTY>position = (669, -513)</PROPERTY>
  </VARIABLE>

  <VARIABLE TYPE="nature">
    <NAME>Raf</NAME>
    <OUTCOME>LOW</OUTCOME>
    <OUTCOME>AVG</OUTCOME>
    <OUTCOME>HIGH</OUTCOME>
    <PROPERTY>position = (359, -487)</PROPERTY>
  </VARIABLE>

  <VARIABLE TYPE="nature">
    <NAME>Jnk</NAME>
    <OUTCOME>LOW</OUTCOME>
    <OUTCOME>AVG</OUTCOME>
    <OUTCOME>HIGH</OUTCOME>
    <PROPERTY>position = (0, 0)</PROPERTY>
  </VARIABLE>

  <VARIABLE TYPE="nature">
    <NAME>PKC</NAME>
    <OUTCOME>LOW</OUTCOME>
    <OUTCOME>AVG</OUTCOME>
    <OUTCOME>HIGH</OUTCOME>
    <PROPERTY>position = (0, 0)</PROPERTY>
  </VARIABLE>

  <VARIABLE TYPE="nature">
    <NAME>Plcg</NAME>
    <OUTCOME>LOW</OUTCOME>
    <OUTCOME>AVG</OUTCOME>
    <OUTCOME>HIGH</OUTCOME>
    <PROPERTY>position = (0, 0)</PROPERTY>
  </VARIABLE>

  <VARIABLE TYPE="nature">
    <NAME>PIP2</NAME>
    <OUTCOME>LOW</OUTCOME>
    <OUTCOME>AVG</OUTCOME>
    <OUTCOME>HIGH</OUTCOME>
    <PROPERTY>position = (0, 0)</PROPERTY>
  </VARIABLE>

  <VARIABLE TYPE="nature">
    <NAME>PIP3</NAME>
    <OUTCOME>LOW</OUTCOME>
    <OUTCOME>AVG</OUTCOME>
    <OUTCOME>HIGH</OUTCOME>
    <PROPERTY>position = (0, 0)</PROPERTY>
  </VARIABLE>

  <VARIABLE TYPE="nature">
    <NAME>P38</NAME>
    <OUTCOME>LOW</OUTCOME>
    <OUTCOME>AVG</OUTCOME>
    <OUTCOME>HIGH</OUTCOME>
    <PROPERTY>position = (0, 0)</PROPERTY>
  </VARIABLE>

  <DEFINITION>
    <FOR>PKA</FOR>
    <GIVEN>PKC</GIVEN>
    <TABLE>0.3864255386425538 0.37942433794243374 0.23415012341501232 0.06039637939603621 0.922646500773535 0.016957119830428802 0.01577014 0.95873839 0.02549147 </TABLE>
  </DEFINITION>

  <DEFINITION>
    <FOR>Mek</FOR>
    <GIVEN>PKA</GIVEN>
    <GIVEN>PKC</GIVEN>
    <GIVEN>Raf</GIVEN>
    <TABLE>0.7451772095 0.2545984747 2.243158E-4 0.3846008 0.1231368 0.4922624 0.262181426 0.001450275 0.736368299 0.7066581578 0.2931291215 2.127207E-4 0.26927639382692764 0.7304863582730486 2.372479000237248E-4 0.85065617 0.10656168 0.04278215 0.854385965 0.143859649 0.001754386 0.011904760000000002 0.9761904800000001 0.011904760000000002 0.33333333333333337 0.33333333333333337 0.33333333333333337 0.7576914880890898 0.24227669619141035 3.181571949985689E-5 0.343172087 0.649403298 0.007424615 0.8652899 0.1010029 0.0337072 0.7148153440497808 0.2851753175736438 9.338376575468117E-6 0.27465766 0.72002723 0.00531511 0.2814957 0.5851161 0.1333882 0.8256462889611091 0.17432539766926944 2.831336962145025E-5 0.1054112554 0.8943722944 2.164502E-4 0.33333333333333337 0.33333333333333337 0.33333333333333337 0.997728143141765 0.0022444850970515357 2.7371761183554955E-5 0.9996370894000363 1.8145529998185448E-4 1.8145529998185448E-4 0.9361046959936103 7.698229000769822E-4 0.06312548110631255 0.9689835575 0.0306427504 3.736921E-4 0.854385965 0.143859649 0.001754386 0.498470948 0.498470948 0.003058104 0.7259507829999999 0.27293064899999997 0.0011185679999999997 0.006060606 0.987878788 0.006060606 0.33333333333333337 0.33333333333333337 0.33333333333333337 </TABLE>
  </DEFINITION>

  <DEFINITION>
    <FOR>Erk</FOR>
    <GIVEN>Mek</GIVEN>
    <GIVEN>PKA</GIVEN>
    <TABLE>0.85051343 0.13872433 0.01076224 0.1177122 0.6919357 0.1903521 0.07405991 0.70044614 0.22549395 0.3870326 0.4836913 0.1292761 0.04895789 0.72823961 0.2228025 0.0036630039963369957 0.1025641028974359 0.8937728931062271 0.008682883 0.187958884 0.803358233 0.0011534029988465968 0.7485582462514416 0.2502883507497117 0.03333333033333331 0.03333333033333331 0.9333333393333334 </TABLE>
  </DEFINITION>

  <DEFINITION>
    <FOR>Akt</FOR>
    <GIVEN>Erk</GIVEN>
    <GIVEN>PKA</GIVEN>
    <TABLE>0.6721176592 0.3277794919 1.028489E-4 0.62038586 0.37950262 1.1152E-4 0.9750859107000001 0.024054982800000003 8.591065000000001E-4 0.334950584 0.6648697215 1.796945E-4 0.821408184 0.1782019687 3.898473E-4 0.9483619167480715 0.051547330910325866 9.075234160268635E-5 7.682262594453479E-5 0.11830680915458089 0.8816163682194745 0.177105936 0.813732581 0.009161483 0.1703412073 0.8293963255 2.624672E-4 </TABLE>
  </DEFINITION>

  <DEFINITION>
    <FOR>Raf</FOR>
    <GIVEN>PKA</GIVEN>
    <GIVEN>PKC</GIVEN>
    <TABLE>0.06232176 0.14724878 0.79042946 0.3694012 0.3312117 0.2993871 0.86757991 0.12785388 0.00456621 0.4475056 0.3125747 0.2399197 0.55082326 0.39291391 0.05626283 0.8842571921212683 0.1156676989694008 7.51089093307796E-5 0.8428848215711519 0.12714562872854374 0.029969549700304507 0.74895046 0.15952981 0.09151973 0.841807909158192 0.15536723184463275 0.0028248589971751406 </TABLE>
  </DEFINITION>

  <DEFINITION>
    <FOR>Jnk</FOR>
    <GIVEN>PKA</GIVEN>
    <GIVEN>PKC</GIVEN>
    <TABLE>0.2899262 0.2457641 0.4643097 0.5794436586420557 0.42032060345796796 2.3573789997642622E-4 0.00456621 0.99086758 0.00456621 0.576670092422555 0.4232871944380063 4.271313943874935E-5 0.6129037420574548 0.3870808265614863 1.5431381058901367E-5 0.0446898 0.93495569 0.02035451 0.9961240311487984 0.0038067551190372325 6.921373216431339E-5 0.8623005877 0.1368597817 8.396306E-4 0.15536723184463275 0.841807909158192 0.0028248589971751406 </TABLE>
  </DEFINITION>

  <DEFINITION>
    <FOR>PKC</FOR>
    <TABLE>0.42313152000000004 0.48163920000000005 0.09522928000000001 </TABLE>
  </DEFINITION>

  <DEFINITION>
    <FOR>Plcg</FOR>
    <TABLE>0.81213356 0.08337962 0.10448682 </TABLE>
  </DEFINITION>

  <DEFINITION>
    <FOR>PIP2</FOR>
    <GIVEN>PIP3</GIVEN>
    <GIVEN>Plcg</GIVEN>
    <TABLE>0.9967915266043659 0.003169817084602418 3.865631103173694E-5 0.9978902959978903 0.001054852001054852 0.001054852001054852 0.2218092 0.4936493 0.2845415 0.9867112136955517 0.013269910184186353 1.8876120262000547E-5 0.957165109 0.0424454829 3.894081E-4 0.07672787 0.39110315 0.53216898 0.872401162 0.120070734 0.007528104 0.5218095547819045 0.4624551653754484 0.015735279842647203 0.026416909735830902 0.05235350947646491 0.9212295807877043 </TABLE>
  </DEFINITION>

  <DEFINITION>
    <FOR>PIP3</FOR>
    <GIVEN>Plcg</GIVEN>
    <TABLE>0.21843097815690216 0.44732375526762447 0.3342452665754733 0.07796694 0.21120158 0.71083148 0.4237054576294542 0.43965345603465433 0.13664108633589134 </TABLE>
  </DEFINITION>

  <DEFINITION>
    <FOR>P38</FOR>
    <GIVEN>PKA</GIVEN>
    <GIVEN>PKC</GIVEN>
    <TABLE>0.30691159 0.06458648 0.62850193 0.6558227251 0.343941537 2.357379E-4 0.86757991 0.12785388 0.00456621 0.9191867410808133 0.07846403592153597 0.0023492229976507773 0.8149776744260007 0.18500689419448368 1.5431379515763314E-5 0.80313955 0.19272946 0.00413099 0.8073781880737819 0.0916389809163898 0.10098283100982831 0.3862301 0.1595298 0.4542401 0.765536723 0.231638418 0.002824859 </TABLE>
  </DEFINITION>

</NETWORK>
</BIF>
