<?xml version="1.0" encoding="US-ASCII"?>

<!--
  Bayesian network in XMLBIF v0.3 (BayesNet Interchange Format)
  Produced by SamIam http://reasoning.cs.ucla.edu/samiam
  Output created 14-ott-2020 11.16.30
-->

<BIF VERSION="0.3">
<NETWORK>
  <NAME>InternalNetwork</NAME>

  <VARIABLE TYPE="nature">
    <NAME>node8</NAME>
    <OUTCOME>state0</OUTCOME>
    <OUTCOME>state1</OUTCOME>
    <PROPERTY>position = (115, 290)</PROPERTY>
  </VARIABLE>

  <VARIABLE TYPE="nature">
    <NAME>node0</NAME>
    <OUTCOME>state0</OUTCOME>
    <OUTCOME>state1</OUTCOME>
    <PROPERTY>position = (683, 499)</PROPERTY>
  </VARIABLE>

  <VARIABLE TYPE="nature">
    <NAME>node3</NAME>
    <OUTCOME>state0</OUTCOME>
    <OUTCOME>state1</OUTCOME>
    <PROPERTY>position = (715, 292)</PROPERTY>
  </VARIABLE>

  <VARIABLE TYPE="nature">
    <NAME>node2</NAME>
    <OUTCOME>state0</OUTCOME>
    <OUTCOME>state1</OUTCOME>
    <PROPERTY>position = (227, 649)</PROPERTY>
  </VARIABLE>

  <VARIABLE TYPE="nature">
    <NAME>node4</NAME>
    <OUTCOME>state0</OUTCOME>
    <OUTCOME>state1</OUTCOME>
    <PROPERTY>position = (-228, 304)</PROPERTY>
  </VARIABLE>

  <VARIABLE TYPE="nature">
    <NAME>node7</NAME>
    <OUTCOME>state0</OUTCOME>
    <OUTCOME>state1</OUTCOME>
    <PROPERTY>position = (443, 648)</PROPERTY>
  </VARIABLE>

  <VARIABLE TYPE="nature">
    <NAME>node1</NAME>
    <OUTCOME>state0</OUTCOME>
    <OUTCOME>state1</OUTCOME>
    <PROPERTY>position = (14, 645)</PROPERTY>
  </VARIABLE>

  <VARIABLE TYPE="nature">
    <NAME>node6</NAME>
    <OUTCOME>state0</OUTCOME>
    <OUTCOME>state1</OUTCOME>
    <PROPERTY>position = (308, 296)</PROPERTY>
  </VARIABLE>

  <VARIABLE TYPE="nature">
    <NAME>node5</NAME>
    <OUTCOME>state0</OUTCOME>
    <OUTCOME>state1</OUTCOME>
    <PROPERTY>position = (33, -51)</PROPERTY>
  </VARIABLE>

  <VARIABLE TYPE="nature">
    <NAME>node9</NAME>
    <OUTCOME>state0</OUTCOME>
    <OUTCOME>state1</OUTCOME>
    <PROPERTY>position = (582, -47)</PROPERTY>
  </VARIABLE>

  <DEFINITION>
    <FOR>node8</FOR>
    <GIVEN>node5</GIVEN>
    <GIVEN>node4</GIVEN>
    <TABLE>0.4616 0.5384 0.9195 0.0805 0.0032 0.9968 0.2262 0.7738 </TABLE>
  </DEFINITION>

  <DEFINITION>
    <FOR>node0</FOR>
    <GIVEN>node8</GIVEN>
    <TABLE>0.326 0.674 0.8285 0.1715 </TABLE>
  </DEFINITION>

  <DEFINITION>
    <FOR>node3</FOR>
    <GIVEN>node6</GIVEN>
    <TABLE>0.5482 0.4518 0.9377 0.0623 </TABLE>
  </DEFINITION>

  <DEFINITION>
    <FOR>node2</FOR>
    <GIVEN>node9</GIVEN>
    <TABLE>0.3525 0.6475 0.9622 0.0378 </TABLE>
  </DEFINITION>

  <DEFINITION>
    <FOR>node4</FOR>
    <GIVEN>node9</GIVEN>
    <GIVEN>node5</GIVEN>
    <TABLE>0.2313 0.7687 0.6515 0.3485 0.4561 0.5439 0.2737 0.7263 </TABLE>
  </DEFINITION>

  <DEFINITION>
    <FOR>node7</FOR>
    <GIVEN>node6</GIVEN>
    <GIVEN>node9</GIVEN>
    <TABLE>0.2101 0.7899 0.4567 0.5433 0.6714 0.3286 0.3801 0.6199 </TABLE>
  </DEFINITION>

  <DEFINITION>
    <FOR>node1</FOR>
    <GIVEN>node0</GIVEN>
    <GIVEN>node5</GIVEN>
    <GIVEN>node3</GIVEN>
    <TABLE>0.8732 0.1268 0.2214 0.7786 0.6828 0.3172 0.9348 0.0652 0.4107 0.5893 0.0781 0.9219 0.5349 0.4651 0.0108 0.9892 </TABLE>
  </DEFINITION>

  <DEFINITION>
    <FOR>node6</FOR>
    <GIVEN>node0</GIVEN>
    <TABLE>0.8585 0.1415 0.018 0.982 </TABLE>
  </DEFINITION>

  <DEFINITION>
    <FOR>node5</FOR>
    <TABLE>0.4107 0.5893 </TABLE>
  </DEFINITION>

  <DEFINITION>
    <FOR>node9</FOR>
    <TABLE>0.1559 0.8441 </TABLE>
  </DEFINITION>

</NETWORK>
</BIF>
